<?xml version="1.0"?>
<MethodSetup Method="MLP::MLP">
  <GeneralInfo>
    <Info name="TMVA Release" value="4.2.1 [262657]"/>
    <Info name="ROOT Release" value="6.26/10 [399882]"/>
    <Info name="Creator" value="erins"/>
    <Info name="Date" value="Wed Jul 26 20:51:39 2023"/>
    <Info name="Host" value="Linux cni-rhel7.jlab.org 3.10.0-1160.80.1.el7.x86_64 #1 SMP Sat Oct 8 18:13:21 UTC 2022 x86_64 x86_64 x86_64 GNU/Linux"/>
    <Info name="Dir" value="/w/hallb-scshelf2102/clas/clase2/erins/repos/rgm/NeutronVeto"/>
    <Info name="Training events" value="28000"/>
    <Info name="TrainingTime" value="7.24523971e+01"/>
    <Info name="AnalysisType" value="Classification"/>
  </GeneralInfo>
  <Options>
    <Option name="NCycles" modified="Yes">600</Option>
    <Option name="HiddenLayers" modified="Yes">N+5</Option>
    <Option name="NeuronType" modified="Yes">tanh</Option>
    <Option name="RandomSeed" modified="No">1</Option>
    <Option name="EstimatorType" modified="No">CE</Option>
    <Option name="NeuronInputType" modified="No">sum</Option>
    <Option name="V" modified="Yes">False</Option>
    <Option name="VerbosityLevel" modified="No">Default</Option>
    <Option name="VarTransform" modified="Yes">N</Option>
    <Option name="H" modified="Yes">True</Option>
    <Option name="CreateMVAPdfs" modified="No">False</Option>
    <Option name="IgnoreNegWeightsInTraining" modified="No">False</Option>
    <Option name="TrainingMethod" modified="No">BP</Option>
    <Option name="LearningRate" modified="No">2.000000e-02</Option>
    <Option name="DecayRate" modified="No">1.000000e-02</Option>
    <Option name="TestRate" modified="Yes">5</Option>
    <Option name="EpochMonitoring" modified="No">False</Option>
    <Option name="Sampling" modified="No">1.000000e+00</Option>
    <Option name="SamplingEpoch" modified="No">1.000000e+00</Option>
    <Option name="SamplingImportance" modified="No">1.000000e+00</Option>
    <Option name="SamplingTraining" modified="No">True</Option>
    <Option name="SamplingTesting" modified="No">False</Option>
    <Option name="ResetStep" modified="No">50</Option>
    <Option name="Tau" modified="No">3.000000e+00</Option>
    <Option name="BPMode" modified="No">sequential</Option>
    <Option name="BatchSize" modified="No">-1</Option>
    <Option name="ConvergenceImprove" modified="No">1.000000e-30</Option>
    <Option name="ConvergenceTests" modified="No">-1</Option>
    <Option name="UseRegulator" modified="Yes">False</Option>
    <Option name="UpdateLimit" modified="No">10000</Option>
    <Option name="CalculateErrors" modified="No">False</Option>
    <Option name="WeightRange" modified="No">1.000000e+00</Option>
  </Options>
  <Variables NVar="8">
    <Variable VarIndex="0" Expression="energy" Label="energy" Title="energy" Unit="" Internal="energy" Type="F" Min="1.50066805e+00" Max="6.15646729e+02"/>
    <Variable VarIndex="1" Expression="layermult" Label="layermult" Title="layermult" Unit="" Internal="layermult" Type="F" Min="0.00000000e+00" Max="3.00000000e+00"/>
    <Variable VarIndex="2" Expression="size" Label="size" Title="size" Unit="" Internal="size" Type="F" Min="1.00000000e+00" Max="3.00000000e+00"/>
    <Variable VarIndex="3" Expression="cnd_hits" Label="cnd_hits" Title="cnd_hits" Unit="" Internal="cnd_hits" Type="F" Min="0.00000000e+00" Max="1.10000000e+01"/>
    <Variable VarIndex="4" Expression="cnd_energy" Label="cnd_energy" Title="cnd_energy" Unit="" Internal="cnd_energy" Type="F" Min="0.00000000e+00" Max="5.53596463e+18"/>
    <Variable VarIndex="5" Expression="ctof_energy" Label="ctof_energy" Title="ctof_energy" Unit="" Internal="ctof_energy" Type="F" Min="0.00000000e+00" Max="3.61088806e+02"/>
    <Variable VarIndex="6" Expression="ctof_hits" Label="ctof_hits" Title="ctof_hits" Unit="" Internal="ctof_hits" Type="F" Min="0.00000000e+00" Max="9.00000000e+00"/>
    <Variable VarIndex="7" Expression="angle_diff" Label="angle_diff" Title="angle_diff" Unit="" Internal="angle_diff" Type="F" Min="2.34536737e-01" Max="3.60000000e+02"/>
  </Variables>
  <Spectators NSpec="1">
    <Spectator SpecIndex="0" Expression="momentum" Label="momentum" Title="Momentum" Unit="units" Internal="momentum" Type="F" Min="2.00001284e-01" Max="1.24994767e+00"/>
  </Spectators>
  <Classes NClass="2">
    <Class Name="Signal" Index="0"/>
    <Class Name="Background" Index="1"/>
  </Classes>
  <Transformations NTransformations="1">
    <Transform Name="Normalize">
      <Selection>
        <Input NInputs="8">
          <Input Type="Variable" Label="energy" Expression="energy"/>
          <Input Type="Variable" Label="layermult" Expression="layermult"/>
          <Input Type="Variable" Label="size" Expression="size"/>
          <Input Type="Variable" Label="cnd_hits" Expression="cnd_hits"/>
          <Input Type="Variable" Label="cnd_energy" Expression="cnd_energy"/>
          <Input Type="Variable" Label="ctof_energy" Expression="ctof_energy"/>
          <Input Type="Variable" Label="ctof_hits" Expression="ctof_hits"/>
          <Input Type="Variable" Label="angle_diff" Expression="angle_diff"/>
        </Input>
        <Output NOutputs="8">
          <Output Type="Variable" Label="energy" Expression="energy"/>
          <Output Type="Variable" Label="layermult" Expression="layermult"/>
          <Output Type="Variable" Label="size" Expression="size"/>
          <Output Type="Variable" Label="cnd_hits" Expression="cnd_hits"/>
          <Output Type="Variable" Label="cnd_energy" Expression="cnd_energy"/>
          <Output Type="Variable" Label="ctof_energy" Expression="ctof_energy"/>
          <Output Type="Variable" Label="ctof_hits" Expression="ctof_hits"/>
          <Output Type="Variable" Label="angle_diff" Expression="angle_diff"/>
        </Output>
      </Selection>
      <Class ClassIndex="0">
        <Ranges>
          <Range Index="0" Min="1.5006680488586426e+00" Max="5.9368878173828125e+02"/>
          <Range Index="1" Min="0.0000000000000000e+00" Max="3.0000000000000000e+00"/>
          <Range Index="2" Min="1.0000000000000000e+00" Max="3.0000000000000000e+00"/>
          <Range Index="3" Min="0.0000000000000000e+00" Max="8.0000000000000000e+00"/>
          <Range Index="4" Min="0.0000000000000000e+00" Max="5.5359646297940296e+18"/>
          <Range Index="5" Min="0.0000000000000000e+00" Max="1.8459700012207031e+02"/>
          <Range Index="6" Min="0.0000000000000000e+00" Max="8.0000000000000000e+00"/>
          <Range Index="7" Min="1.7338320016860962e+00" Max="3.6000000000000000e+02"/>
        </Ranges>
      </Class>
      <Class ClassIndex="1">
        <Ranges>
          <Range Index="0" Min="1.5047402381896973e+00" Max="6.1564672851562500e+02"/>
          <Range Index="1" Min="0.0000000000000000e+00" Max="3.0000000000000000e+00"/>
          <Range Index="2" Min="1.0000000000000000e+00" Max="3.0000000000000000e+00"/>
          <Range Index="3" Min="0.0000000000000000e+00" Max="1.1000000000000000e+01"/>
          <Range Index="4" Min="0.0000000000000000e+00" Max="1.5880503951360000e+12"/>
          <Range Index="5" Min="0.0000000000000000e+00" Max="3.6108880615234375e+02"/>
          <Range Index="6" Min="0.0000000000000000e+00" Max="9.0000000000000000e+00"/>
          <Range Index="7" Min="2.3453673720359802e-01" Max="3.6000000000000000e+02"/>
        </Ranges>
      </Class>
      <Class ClassIndex="2">
        <Ranges>
          <Range Index="0" Min="1.5006680488586426e+00" Max="6.1564672851562500e+02"/>
          <Range Index="1" Min="0.0000000000000000e+00" Max="3.0000000000000000e+00"/>
          <Range Index="2" Min="1.0000000000000000e+00" Max="3.0000000000000000e+00"/>
          <Range Index="3" Min="0.0000000000000000e+00" Max="1.1000000000000000e+01"/>
          <Range Index="4" Min="0.0000000000000000e+00" Max="5.5359646297940296e+18"/>
          <Range Index="5" Min="0.0000000000000000e+00" Max="3.6108880615234375e+02"/>
          <Range Index="6" Min="0.0000000000000000e+00" Max="9.0000000000000000e+00"/>
          <Range Index="7" Min="2.3453673720359802e-01" Max="3.6000000000000000e+02"/>
        </Ranges>
      </Class>
    </Transform>
  </Transformations>
  <MVAPdfs/>
  <Weights>
    <Layout NLayers="3">
      <Layer Index="0" NNeurons="9">
        <Neuron NSynapses="13">
          3.4533747678205989e-01 1.6077398100288294e+00 -3.5200573900914645e-01 3.6227936482171788e+00 -8.9563149792795216e-01 -6.1206227640645650e-01 -9.4735749816953874e-01 1.2717439748132858e+01 -8.8597464601161509e+00 3.2142419966286337e+00 1.2088622949242915e+00 -7.0772494855809764e-01 9.5342335841867132e-01 
        </Neuron>
        <Neuron NSynapses="13">
          1.1291349024011192e-01 -6.6131299774745544e-01 1.2197788966001506e-01 -1.0708989997331022e+00 4.7705028633817370e-01 1.6680201918296438e+00 2.0642043270268755e+00 5.3801747042902559e-01 -1.6497928538497095e+00 9.8284716750041090e-01 7.4922247606363324e-01 -1.0339597286213815e+00 -1.1045822424656868e+00 
        </Neuron>
        <Neuron NSynapses="13">
          -8.0334229451336492e-01 -1.3052851790812425e+00 -3.9732038017347045e-02 -8.4063311079525149e-01 -9.5395229601840881e-02 1.1551167297649034e+00 -9.8042389815775044e-01 -1.7794065608857670e-01 3.6018774176457719e-01 -2.2616358103212315e+00 5.0647151393049172e-01 7.9810260753207440e-01 -6.1138274024407675e+00 
        </Neuron>
        <Neuron NSynapses="13">
          1.2583959794484536e+00 4.1707760296911628e-01 2.1899749133325602e-01 3.8957833882056598e+00 8.9245001104224175e-01 -1.4256214093668744e+00 -1.6898962282178907e+00 -4.5118630617140720e-01 4.4811370525375791e+00 -2.1062261859540263e-01 2.0337219964750108e+00 2.4360998854893916e+00 2.2149125051709206e+00 
        </Neuron>
        <Neuron NSynapses="13">
          -1.0827103436361300e-01 2.3487576533752446e+00 1.8506266734057941e+00 -1.5522363110848945e+00 -4.4910845367764303e+00 -2.4036773176353829e+00 3.8386498440951400e-01 -5.7919248716747900e+00 -3.9188208179300039e+00 2.7189511027285236e+00 -1.0780494581547688e+00 3.8244748974771309e-01 -3.8518223824769131e+00 
        </Neuron>
        <Neuron NSynapses="13">
          -3.2185504144337416e+00 5.4428652429701274e-01 1.7107184135215845e+00 2.2287578571194002e+00 -1.1644423918290137e+00 6.1300613695930473e-01 -1.3135826977118896e+00 7.2770548987480899e-01 4.3537695133566299e+00 1.7293650782406453e+00 -2.3548294785812889e+00 -7.5622829549827020e-01 5.0383232180903885e+00 
        </Neuron>
        <Neuron NSynapses="13">
          6.9265406534300826e+00 3.3727545824557940e-02 -8.2990489043019722e-01 1.0706342178397050e+00 4.3483187900603211e+00 1.7355376007407428e-01 -8.0908655876806412e-01 4.1564046719675413e-03 6.5247657006810167e+00 1.3292659250600385e+00 -3.1898610973707782e+00 -7.6246537416201066e-01 2.6998677840758663e+00 
        </Neuron>
        <Neuron NSynapses="13">
          -6.5190260711555021e+00 1.8512022114191027e+00 -1.3526031421915809e+01 -3.9897034789917400e+00 7.7080955952631385e+00 5.7609151326422792e-01 -4.5840680105958640e+00 -1.4989059373760620e+00 9.9318323835755729e-01 -8.1421640742180088e+00 3.5864905322476548e-01 -4.0006198876456334e-01 8.5194228970373462e+00 
        </Neuron>
        <Neuron NSynapses="13">
          -3.2744459616293189e+00 1.2396993206930553e+00 -4.6364133549587496e+00 -1.6003749676355808e-01 3.1367129367246442e+00 5.8958921372916884e-01 -6.5784468879576374e-01 6.8559483243305710e+00 2.3654549449501543e+00 -1.9260231253222291e+00 5.6457304490503812e-01 2.1278409246323591e+00 6.0775928720983829e+00 
        </Neuron>
      </Layer>
      <Layer Index="1" NNeurons="14">
        <Neuron NSynapses="1">
          -8.9674990946723576e-01 
        </Neuron>
        <Neuron NSynapses="1">
          2.4500059364513436e+00 
        </Neuron>
        <Neuron NSynapses="1">
          -2.5429683633166404e+00 
        </Neuron>
        <Neuron NSynapses="1">
          -1.6592734433219212e+00 
        </Neuron>
        <Neuron NSynapses="1">
          1.0091383103125835e+00 
        </Neuron>
        <Neuron NSynapses="1">
          -2.0389621336484312e+00 
        </Neuron>
        <Neuron NSynapses="1">
          3.6939449855053375e+00 
        </Neuron>
        <Neuron NSynapses="1">
          3.4583045397719943e+00 
        </Neuron>
        <Neuron NSynapses="1">
          -1.1259921499623498e+00 
        </Neuron>
        <Neuron NSynapses="1">
          -1.1016793666272380e+00 
        </Neuron>
        <Neuron NSynapses="1">
          1.5206230968495364e+00 
        </Neuron>
        <Neuron NSynapses="1">
          -2.5447072153708175e+00 
        </Neuron>
        <Neuron NSynapses="1">
          6.7297545464046493e-01 
        </Neuron>
        <Neuron NSynapses="1">
          -1.1814198918800323e+00 
        </Neuron>
      </Layer>
      <Layer Index="2" NNeurons="1">
        <Neuron NSynapses="0"/>
      </Layer>
    </Layout>
  </Weights>
</MethodSetup>
