<?xml version="1.0"?>
<MethodSetup Method="MLP::MLP">
  <GeneralInfo>
    <Info name="TMVA Release" value="4.2.1 [262657]"/>
    <Info name="ROOT Release" value="6.26/10 [399882]"/>
    <Info name="Creator" value="erins"/>
    <Info name="Date" value="Wed Jul 26 21:27:02 2023"/>
    <Info name="Host" value="Linux cni-rhel7.jlab.org 3.10.0-1160.80.1.el7.x86_64 #1 SMP Sat Oct 8 18:13:21 UTC 2022 x86_64 x86_64 x86_64 GNU/Linux"/>
    <Info name="Dir" value="/w/hallb-scshelf2102/clas/clase2/erins/repos/rgm/NeutronVeto"/>
    <Info name="Training events" value="28000"/>
    <Info name="TrainingTime" value="7.31164629e+01"/>
    <Info name="AnalysisType" value="Classification"/>
  </GeneralInfo>
  <Options>
    <Option name="NCycles" modified="Yes">600</Option>
    <Option name="HiddenLayers" modified="Yes">N+5</Option>
    <Option name="NeuronType" modified="Yes">tanh</Option>
    <Option name="RandomSeed" modified="No">1</Option>
    <Option name="EstimatorType" modified="No">CE</Option>
    <Option name="NeuronInputType" modified="No">sum</Option>
    <Option name="V" modified="Yes">False</Option>
    <Option name="VerbosityLevel" modified="No">Default</Option>
    <Option name="VarTransform" modified="Yes">N</Option>
    <Option name="H" modified="Yes">True</Option>
    <Option name="CreateMVAPdfs" modified="No">False</Option>
    <Option name="IgnoreNegWeightsInTraining" modified="No">False</Option>
    <Option name="TrainingMethod" modified="No">BP</Option>
    <Option name="LearningRate" modified="No">2.000000e-02</Option>
    <Option name="DecayRate" modified="No">1.000000e-02</Option>
    <Option name="TestRate" modified="Yes">5</Option>
    <Option name="EpochMonitoring" modified="No">False</Option>
    <Option name="Sampling" modified="No">1.000000e+00</Option>
    <Option name="SamplingEpoch" modified="No">1.000000e+00</Option>
    <Option name="SamplingImportance" modified="No">1.000000e+00</Option>
    <Option name="SamplingTraining" modified="No">True</Option>
    <Option name="SamplingTesting" modified="No">False</Option>
    <Option name="ResetStep" modified="No">50</Option>
    <Option name="Tau" modified="No">3.000000e+00</Option>
    <Option name="BPMode" modified="No">sequential</Option>
    <Option name="BatchSize" modified="No">-1</Option>
    <Option name="ConvergenceImprove" modified="No">1.000000e-30</Option>
    <Option name="ConvergenceTests" modified="No">-1</Option>
    <Option name="UseRegulator" modified="Yes">False</Option>
    <Option name="UpdateLimit" modified="No">10000</Option>
    <Option name="CalculateErrors" modified="No">False</Option>
    <Option name="WeightRange" modified="No">1.000000e+00</Option>
  </Options>
  <Variables NVar="8">
    <Variable VarIndex="0" Expression="energy" Label="energy" Title="energy" Unit="" Internal="energy" Type="F" Min="1.50845850e+00" Max="4.46794098e+02"/>
    <Variable VarIndex="1" Expression="layermult" Label="layermult" Title="layermult" Unit="" Internal="layermult" Type="F" Min="0.00000000e+00" Max="3.00000000e+00"/>
    <Variable VarIndex="2" Expression="size" Label="size" Title="size" Unit="" Internal="size" Type="F" Min="1.00000000e+00" Max="3.00000000e+00"/>
    <Variable VarIndex="3" Expression="cnd_hits" Label="cnd_hits" Title="cnd_hits" Unit="" Internal="cnd_hits" Type="F" Min="0.00000000e+00" Max="1.00000000e+01"/>
    <Variable VarIndex="4" Expression="cnd_energy" Label="cnd_energy" Title="cnd_energy" Unit="" Internal="cnd_energy" Type="F" Min="0.00000000e+00" Max="6.28149440e+08"/>
    <Variable VarIndex="5" Expression="ctof_energy" Label="ctof_energy" Title="ctof_energy" Unit="" Internal="ctof_energy" Type="F" Min="0.00000000e+00" Max="2.68817780e+02"/>
    <Variable VarIndex="6" Expression="ctof_hits" Label="ctof_hits" Title="ctof_hits" Unit="" Internal="ctof_hits" Type="F" Min="0.00000000e+00" Max="8.00000000e+00"/>
    <Variable VarIndex="7" Expression="angle_diff" Label="angle_diff" Title="angle_diff" Unit="" Internal="angle_diff" Type="F" Min="4.26734924e+00" Max="3.60000000e+02"/>
  </Variables>
  <Spectators NSpec="1">
    <Spectator SpecIndex="0" Expression="momentum" Label="momentum" Title="Momentum" Unit="units" Internal="momentum" Type="F" Min="2.00045139e-01" Max="9.99940395e-01"/>
  </Spectators>
  <Classes NClass="2">
    <Class Name="Signal" Index="0"/>
    <Class Name="Background" Index="1"/>
  </Classes>
  <Transformations NTransformations="1">
    <Transform Name="Normalize">
      <Selection>
        <Input NInputs="8">
          <Input Type="Variable" Label="energy" Expression="energy"/>
          <Input Type="Variable" Label="layermult" Expression="layermult"/>
          <Input Type="Variable" Label="size" Expression="size"/>
          <Input Type="Variable" Label="cnd_hits" Expression="cnd_hits"/>
          <Input Type="Variable" Label="cnd_energy" Expression="cnd_energy"/>
          <Input Type="Variable" Label="ctof_energy" Expression="ctof_energy"/>
          <Input Type="Variable" Label="ctof_hits" Expression="ctof_hits"/>
          <Input Type="Variable" Label="angle_diff" Expression="angle_diff"/>
        </Input>
        <Output NOutputs="8">
          <Output Type="Variable" Label="energy" Expression="energy"/>
          <Output Type="Variable" Label="layermult" Expression="layermult"/>
          <Output Type="Variable" Label="size" Expression="size"/>
          <Output Type="Variable" Label="cnd_hits" Expression="cnd_hits"/>
          <Output Type="Variable" Label="cnd_energy" Expression="cnd_energy"/>
          <Output Type="Variable" Label="ctof_energy" Expression="ctof_energy"/>
          <Output Type="Variable" Label="ctof_hits" Expression="ctof_hits"/>
          <Output Type="Variable" Label="angle_diff" Expression="angle_diff"/>
        </Output>
      </Selection>
      <Class ClassIndex="0">
        <Ranges>
          <Range Index="0" Min="1.5084584951400757e+00" Max="1.7464991760253906e+02"/>
          <Range Index="1" Min="0.0000000000000000e+00" Max="3.0000000000000000e+00"/>
          <Range Index="2" Min="1.0000000000000000e+00" Max="3.0000000000000000e+00"/>
          <Range Index="3" Min="0.0000000000000000e+00" Max="8.0000000000000000e+00"/>
          <Range Index="4" Min="0.0000000000000000e+00" Max="4.1034310400000000e+08"/>
          <Range Index="5" Min="0.0000000000000000e+00" Max="1.8354118347167969e+02"/>
          <Range Index="6" Min="0.0000000000000000e+00" Max="4.0000000000000000e+00"/>
          <Range Index="7" Min="3.0915546417236328e+01" Max="3.6000000000000000e+02"/>
        </Ranges>
      </Class>
      <Class ClassIndex="1">
        <Ranges>
          <Range Index="0" Min="1.5158005952835083e+00" Max="4.4679409790039062e+02"/>
          <Range Index="1" Min="0.0000000000000000e+00" Max="3.0000000000000000e+00"/>
          <Range Index="2" Min="1.0000000000000000e+00" Max="2.0000000000000000e+00"/>
          <Range Index="3" Min="0.0000000000000000e+00" Max="1.0000000000000000e+01"/>
          <Range Index="4" Min="0.0000000000000000e+00" Max="6.2814944000000000e+08"/>
          <Range Index="5" Min="0.0000000000000000e+00" Max="2.6881777954101562e+02"/>
          <Range Index="6" Min="0.0000000000000000e+00" Max="8.0000000000000000e+00"/>
          <Range Index="7" Min="4.2673492431640625e+00" Max="3.6000000000000000e+02"/>
        </Ranges>
      </Class>
      <Class ClassIndex="2">
        <Ranges>
          <Range Index="0" Min="1.5084584951400757e+00" Max="4.4679409790039062e+02"/>
          <Range Index="1" Min="0.0000000000000000e+00" Max="3.0000000000000000e+00"/>
          <Range Index="2" Min="1.0000000000000000e+00" Max="3.0000000000000000e+00"/>
          <Range Index="3" Min="0.0000000000000000e+00" Max="1.0000000000000000e+01"/>
          <Range Index="4" Min="0.0000000000000000e+00" Max="6.2814944000000000e+08"/>
          <Range Index="5" Min="0.0000000000000000e+00" Max="2.6881777954101562e+02"/>
          <Range Index="6" Min="0.0000000000000000e+00" Max="8.0000000000000000e+00"/>
          <Range Index="7" Min="4.2673492431640625e+00" Max="3.6000000000000000e+02"/>
        </Ranges>
      </Class>
    </Transform>
  </Transformations>
  <MVAPdfs/>
  <Weights>
    <Layout NLayers="3">
      <Layer Index="0" NNeurons="9">
        <Neuron NSynapses="13">
          -4.7707670099555317e+00 3.2413995443197012e+00 -2.1269836888965208e+00 1.8960616555395848e+00 -1.2674872793913257e+00 -1.8892602647489709e+00 -2.3667128628440999e+00 1.9271527390373799e+00 1.0073467157050588e+00 -1.2596602352685922e+00 5.1102178454208405e-02 -1.1492453528498827e+00 -1.4908066392284474e+00 
        </Neuron>
        <Neuron NSynapses="13">
          3.9260040062612872e-01 -8.7019634880445274e-01 2.3235862068284005e-01 -3.4990748510171948e-01 6.3709322511740896e-01 2.7337811477437385e-01 -3.0236669699652777e-02 -3.0384444838478936e-01 4.2291130332891547e-01 -1.7806886552551147e+00 3.4867699918592963e+00 -7.3697301212689303e-01 -1.3315295939434349e-01 
        </Neuron>
        <Neuron NSynapses="13">
          3.4155733636475478e+00 -3.9400711782565256e+00 -7.3890466121502696e+00 4.3498888297750636e-02 -1.1449859053410319e-01 2.1195775510717096e+00 -8.8512633553882392e-02 5.5137453664861405e-02 -6.2471060138950769e-02 1.7160863312675070e+00 1.2551744903233597e-01 2.0493996346017584e+00 -8.0917020302179743e-01 
        </Neuron>
        <Neuron NSynapses="13">
          1.0338112462727096e+00 -1.9058525918664957e+00 7.9196015808525075e+00 1.8142299288627322e+00 3.2456713435278988e+00 -8.6190633055595989e-01 -6.4146219309267085e+00 9.1492017164480577e-01 -4.0110910888244262e-02 3.5402148324649385e+00 -1.6363631041556870e+00 -8.0821628116420127e-03 1.6978778844540656e+00 
        </Neuron>
        <Neuron NSynapses="13">
          -2.1240460034488109e+00 3.5258388111818655e+00 -1.5152568429845645e+00 -1.5267147057902222e+00 -2.6845139318438322e+00 -1.0031475919513733e+00 4.6683130582422141e+00 9.4687445766444889e-01 -8.4915056456095623e+00 -8.3136688189472474e-01 -1.3113605032158826e+00 3.1512200271501398e+00 1.9856191389609670e+00 
        </Neuron>
        <Neuron NSynapses="13">
          -1.2744301837132748e+00 -3.1641415720366100e+00 5.5623135653609026e+00 1.9327110616480953e-01 2.0958923602404694e-01 -4.9520733689444663e-01 -1.3792626620849276e+01 9.6879271288110480e-01 1.7099861305274636e+01 2.7446271168360310e+00 5.7856572247202709e-01 -3.0171593341090963e+00 -1.1280451189419824e+00 
        </Neuron>
        <Neuron NSynapses="13">
          3.0413279725885030e+00 -9.7554054733894591e-01 1.5092761428007619e+00 4.4856275371370274e-01 5.1831906857377561e+00 -7.7180242964522389e-02 2.1879960989235041e+00 -4.5571634497645751e-02 1.7323690086656600e+00 -1.8442546174786243e+00 -6.4555045934539634e-01 -7.8245358998678727e+00 8.5985346506061922e-01 
        </Neuron>
        <Neuron NSynapses="13">
          -6.5599738289686271e-01 2.4501531641422369e+00 -1.6914999217084625e-01 -6.3864711917811678e-01 2.9561971653923562e+00 -1.4444964074614757e+00 -5.8157022820140494e+00 -1.5369967560983560e+00 1.6952835160888253e+00 -3.3903593389094161e-01 -1.4655539040540948e+00 -2.5624267274617187e+00 2.7505566505012897e+00 
        </Neuron>
        <Neuron NSynapses="13">
          -5.3166646703259468e-01 -5.9918169630693119e-01 7.0978525204200549e-01 -1.7073220852553544e-01 2.0373656554942909e-01 -2.8863605939026815e-01 -6.4033151239238117e+00 -2.7889034425331583e-02 7.9048410302204584e+00 1.5970545066885731e+00 -1.3375157147770274e+00 -5.8595488613496405e-01 2.0152433367768705e-01 
        </Neuron>
      </Layer>
      <Layer Index="1" NNeurons="14">
        <Neuron NSynapses="1">
          -1.6024378685352689e+00 
        </Neuron>
        <Neuron NSynapses="1">
          2.2602985212165145e+00 
        </Neuron>
        <Neuron NSynapses="1">
          -1.9547882263164500e+00 
        </Neuron>
        <Neuron NSynapses="1">
          -1.2897092226992806e+00 
        </Neuron>
        <Neuron NSynapses="1">
          1.4121977331463575e+00 
        </Neuron>
        <Neuron NSynapses="1">
          3.7608817191758410e-02 
        </Neuron>
        <Neuron NSynapses="1">
          1.3162609652486916e+00 
        </Neuron>
        <Neuron NSynapses="1">
          1.3794568373752805e+00 
        </Neuron>
        <Neuron NSynapses="1">
          -2.0323858134485269e+00 
        </Neuron>
        <Neuron NSynapses="1">
          1.1347559736347210e+00 
        </Neuron>
        <Neuron NSynapses="1">
          1.2268566608561509e+00 
        </Neuron>
        <Neuron NSynapses="1">
          -1.1240889767372251e+00 
        </Neuron>
        <Neuron NSynapses="1">
          8.8370591812176613e-01 
        </Neuron>
        <Neuron NSynapses="1">
          -6.0341494950910213e-01 
        </Neuron>
      </Layer>
      <Layer Index="2" NNeurons="1">
        <Neuron NSynapses="0"/>
      </Layer>
    </Layout>
  </Weights>
</MethodSetup>
