<?xml version="1.0"?>
<MethodSetup Method="MLP::MLP">
  <GeneralInfo>
    <Info name="TMVA Release" value="4.2.1 [262657]"/>
    <Info name="ROOT Release" value="6.26/10 [399882]"/>
    <Info name="Creator" value="erins"/>
    <Info name="Date" value="Fri Aug  4 12:12:39 2023"/>
    <Info name="Host" value="Linux cni-rhel7.jlab.org 3.10.0-1160.80.1.el7.x86_64 #1 SMP Sat Oct 8 18:13:21 UTC 2022 x86_64 x86_64 x86_64 GNU/Linux"/>
    <Info name="Dir" value="/w/hallb-scshelf2102/clas/clase2/erins/repos/rgm/NeutronVeto"/>
    <Info name="Training events" value="6000"/>
    <Info name="TrainingTime" value="3.38610289e+01"/>
    <Info name="AnalysisType" value="Classification"/>
  </GeneralInfo>
  <Options>
    <Option name="NCycles" modified="Yes">600</Option>
    <Option name="HiddenLayers" modified="Yes">N+5</Option>
    <Option name="NeuronType" modified="Yes">tanh</Option>
    <Option name="RandomSeed" modified="No">1</Option>
    <Option name="EstimatorType" modified="No">CE</Option>
    <Option name="NeuronInputType" modified="No">sum</Option>
    <Option name="V" modified="Yes">False</Option>
    <Option name="VerbosityLevel" modified="No">Default</Option>
    <Option name="VarTransform" modified="Yes">N</Option>
    <Option name="H" modified="Yes">True</Option>
    <Option name="CreateMVAPdfs" modified="No">False</Option>
    <Option name="IgnoreNegWeightsInTraining" modified="No">False</Option>
    <Option name="TrainingMethod" modified="No">BP</Option>
    <Option name="LearningRate" modified="No">2.000000e-02</Option>
    <Option name="DecayRate" modified="No">1.000000e-02</Option>
    <Option name="TestRate" modified="Yes">5</Option>
    <Option name="EpochMonitoring" modified="No">False</Option>
    <Option name="Sampling" modified="No">1.000000e+00</Option>
    <Option name="SamplingEpoch" modified="No">1.000000e+00</Option>
    <Option name="SamplingImportance" modified="No">1.000000e+00</Option>
    <Option name="SamplingTraining" modified="No">True</Option>
    <Option name="SamplingTesting" modified="No">False</Option>
    <Option name="ResetStep" modified="No">50</Option>
    <Option name="Tau" modified="No">3.000000e+00</Option>
    <Option name="BPMode" modified="No">sequential</Option>
    <Option name="BatchSize" modified="No">-1</Option>
    <Option name="ConvergenceImprove" modified="No">1.000000e-30</Option>
    <Option name="ConvergenceTests" modified="No">-1</Option>
    <Option name="UseRegulator" modified="Yes">False</Option>
    <Option name="UpdateLimit" modified="No">10000</Option>
    <Option name="CalculateErrors" modified="No">False</Option>
    <Option name="WeightRange" modified="No">1.000000e+00</Option>
  </Options>
  <Variables NVar="8">
    <Variable VarIndex="0" Expression="energy" Label="energy" Title="energy" Unit="" Internal="energy" Type="F" Min="0.00000000e+00" Max="7.82090137e+03"/>
    <Variable VarIndex="1" Expression="layermult" Label="layermult" Title="layermult" Unit="" Internal="layermult" Type="F" Min="0.00000000e+00" Max="3.00000000e+00"/>
    <Variable VarIndex="2" Expression="size" Label="size" Title="size" Unit="" Internal="size" Type="F" Min="0.00000000e+00" Max="3.00000000e+00"/>
    <Variable VarIndex="3" Expression="cnd_hits" Label="cnd_hits" Title="cnd_hits" Unit="" Internal="cnd_hits" Type="F" Min="0.00000000e+00" Max="8.00000000e+00"/>
    <Variable VarIndex="4" Expression="cnd_energy" Label="cnd_energy" Title="cnd_energy" Unit="" Internal="cnd_energy" Type="F" Min="0.00000000e+00" Max="8.85121614e+11"/>
    <Variable VarIndex="5" Expression="ctof_energy" Label="ctof_energy" Title="ctof_energy" Unit="" Internal="ctof_energy" Type="F" Min="0.00000000e+00" Max="2.15939255e+02"/>
    <Variable VarIndex="6" Expression="ctof_hits" Label="ctof_hits" Title="ctof_hits" Unit="" Internal="ctof_hits" Type="F" Min="0.00000000e+00" Max="9.00000000e+00"/>
    <Variable VarIndex="7" Expression="angle_diff" Label="angle_diff" Title="angle_diff" Unit="" Internal="angle_diff" Type="F" Min="4.63478714e-01" Max="3.60000000e+02"/>
  </Variables>
  <Spectators NSpec="1">
    <Spectator SpecIndex="0" Expression="momentum" Label="momentum" Title="Momentum" Unit="units" Internal="momentum" Type="F" Min="2.00004026e-01" Max="1.23980486e+00"/>
  </Spectators>
  <Classes NClass="2">
    <Class Name="Signal" Index="0"/>
    <Class Name="Background" Index="1"/>
  </Classes>
  <Transformations NTransformations="1">
    <Transform Name="Normalize">
      <Selection>
        <Input NInputs="8">
          <Input Type="Variable" Label="energy" Expression="energy"/>
          <Input Type="Variable" Label="layermult" Expression="layermult"/>
          <Input Type="Variable" Label="size" Expression="size"/>
          <Input Type="Variable" Label="cnd_hits" Expression="cnd_hits"/>
          <Input Type="Variable" Label="cnd_energy" Expression="cnd_energy"/>
          <Input Type="Variable" Label="ctof_energy" Expression="ctof_energy"/>
          <Input Type="Variable" Label="ctof_hits" Expression="ctof_hits"/>
          <Input Type="Variable" Label="angle_diff" Expression="angle_diff"/>
        </Input>
        <Output NOutputs="8">
          <Output Type="Variable" Label="energy" Expression="energy"/>
          <Output Type="Variable" Label="layermult" Expression="layermult"/>
          <Output Type="Variable" Label="size" Expression="size"/>
          <Output Type="Variable" Label="cnd_hits" Expression="cnd_hits"/>
          <Output Type="Variable" Label="cnd_energy" Expression="cnd_energy"/>
          <Output Type="Variable" Label="ctof_energy" Expression="ctof_energy"/>
          <Output Type="Variable" Label="ctof_hits" Expression="ctof_hits"/>
          <Output Type="Variable" Label="angle_diff" Expression="angle_diff"/>
        </Output>
      </Selection>
      <Class ClassIndex="0">
        <Ranges>
          <Range Index="0" Min="3.0140626430511475e+00" Max="1.6683174133300781e+02"/>
          <Range Index="1" Min="0.0000000000000000e+00" Max="3.0000000000000000e+00"/>
          <Range Index="2" Min="1.0000000000000000e+00" Max="2.0000000000000000e+00"/>
          <Range Index="3" Min="0.0000000000000000e+00" Max="5.0000000000000000e+00"/>
          <Range Index="4" Min="0.0000000000000000e+00" Max="2.5442435937500000e+05"/>
          <Range Index="5" Min="0.0000000000000000e+00" Max="1.4381820678710938e+02"/>
          <Range Index="6" Min="0.0000000000000000e+00" Max="3.0000000000000000e+00"/>
          <Range Index="7" Min="5.6913456916809082e+00" Max="1.7872303771972656e+02"/>
        </Ranges>
      </Class>
      <Class ClassIndex="1">
        <Ranges>
          <Range Index="0" Min="0.0000000000000000e+00" Max="7.8209013671875000e+03"/>
          <Range Index="1" Min="0.0000000000000000e+00" Max="3.0000000000000000e+00"/>
          <Range Index="2" Min="0.0000000000000000e+00" Max="3.0000000000000000e+00"/>
          <Range Index="3" Min="0.0000000000000000e+00" Max="8.0000000000000000e+00"/>
          <Range Index="4" Min="0.0000000000000000e+00" Max="8.8512161382400000e+11"/>
          <Range Index="5" Min="0.0000000000000000e+00" Max="2.1593925476074219e+02"/>
          <Range Index="6" Min="0.0000000000000000e+00" Max="9.0000000000000000e+00"/>
          <Range Index="7" Min="4.6347871422767639e-01" Max="3.6000000000000000e+02"/>
        </Ranges>
      </Class>
      <Class ClassIndex="2">
        <Ranges>
          <Range Index="0" Min="0.0000000000000000e+00" Max="7.8209013671875000e+03"/>
          <Range Index="1" Min="0.0000000000000000e+00" Max="3.0000000000000000e+00"/>
          <Range Index="2" Min="0.0000000000000000e+00" Max="3.0000000000000000e+00"/>
          <Range Index="3" Min="0.0000000000000000e+00" Max="8.0000000000000000e+00"/>
          <Range Index="4" Min="0.0000000000000000e+00" Max="8.8512161382400000e+11"/>
          <Range Index="5" Min="0.0000000000000000e+00" Max="2.1593925476074219e+02"/>
          <Range Index="6" Min="0.0000000000000000e+00" Max="9.0000000000000000e+00"/>
          <Range Index="7" Min="4.6347871422767639e-01" Max="3.6000000000000000e+02"/>
        </Ranges>
      </Class>
    </Transform>
  </Transformations>
  <MVAPdfs/>
  <Weights>
    <Layout NLayers="3">
      <Layer Index="0" NNeurons="9">
        <Neuron NSynapses="13">
          3.1820069114039451e-02 2.2172225247890394e+00 7.1057537377462010e-01 2.6742623583823764e+00 -7.1637527559959513e-01 -1.5518497489402430e+00 -1.4372014875491426e+00 2.2745326639879506e+00 -2.1686803100057279e+00 5.2252908588144180e-02 -1.8040186182634124e+00 -8.8191425198354045e-01 -1.6197722153402880e+00 
        </Neuron>
        <Neuron NSynapses="13">
          -9.6224290795243739e-01 -5.2333626668020039e-01 3.7185073586695194e-01 -1.5322250979641872e+00 1.9062055015221633e+00 1.6913807247137455e-01 2.0992150314540017e-01 -3.3330168296560675e-01 -1.2523916735241143e+00 1.9679538036124895e+00 9.7030226872358427e-01 -1.4753941202763021e+00 -8.0753454187217910e-01 
        </Neuron>
        <Neuron NSynapses="13">
          1.0583496897122644e+00 -8.4184615051125233e-01 -2.0591119843435246e+00 -3.0055340822419740e+00 -9.3923538034185614e-02 1.6174253065262740e+00 -4.9718812441395831e-02 3.4997987419709956e-02 2.1785848870662692e+00 -1.4104136850289501e+00 -2.5962854371718103e+00 1.5526624670703373e+00 -1.7862499001512617e+00 
        </Neuron>
        <Neuron NSynapses="13">
          1.5886252288508065e+00 1.4819473915842289e+00 2.0779582222982103e+00 2.6530097507271750e+00 2.3668359943500232e+00 -7.6241111361029823e-01 -3.3137316368029406e-02 9.5087942084908517e-01 -4.7796117159478163e-01 6.0052615292253780e-02 2.1335772390086292e+00 1.1304977735881092e+00 -6.2013548611665435e-02 
        </Neuron>
        <Neuron NSynapses="13">
          -1.1705058371626866e+00 1.4461833119065624e+00 -1.5971568780499084e+00 -7.8016810241330692e-01 -1.0867427944568244e+00 -1.7181945168706867e+00 9.4201062929272361e-01 7.4921634634488166e-01 -2.5523649510465090e+00 8.0777214116733054e-01 -2.3368351788921771e-01 1.6049280759937729e-01 1.8617060224609066e+00 
        </Neuron>
        <Neuron NSynapses="13">
          -1.0496963453477623e+00 5.5148138409866843e-01 -3.9181471668579326e+00 -1.8363606305550011e+00 -1.3461602561740593e+00 -8.1741835629512571e-01 -1.0138548364677422e+00 1.1017497415180757e+00 6.0066248709678991e+00 1.6917940276777410e-01 1.8624024778682386e+00 -1.9767732267945015e+00 -2.6950672915907119e+00 
        </Neuron>
        <Neuron NSynapses="13">
          2.7514643330666102e+00 8.8364996762237891e-01 3.6884480775375286e+00 6.8540911251348058e-01 6.0882012532377983e-01 -8.8419408838545788e-01 -2.3323064706584113e+00 1.6202977692267229e-01 1.7097838813243460e+00 3.9808567130955108e-01 -3.4779717827510588e+00 -1.8595321039703423e+00 -9.8769480176974589e-01 
        </Neuron>
        <Neuron NSynapses="13">
          -3.3334991021256259e+00 1.6076428419026825e+00 -6.1364061984987268e+00 -1.6409695608093189e+00 5.2142341717724894e-01 -9.0779191399182724e-01 -3.3858056772995346e+00 -1.1141739836151423e+00 4.1909409988861041e-01 -6.7957083693368485e+00 -3.1077060930490785e+00 2.9525786585935326e-01 3.8691900702382367e+00 
        </Neuron>
        <Neuron NSynapses="13">
          -1.5682724199442697e+00 1.2369213643917443e+00 -6.3621215373993523e-01 -5.1842710673174530e-01 -1.4345761466994709e+00 4.1730182973921059e-01 -1.2159908451659862e+00 -1.8151555795517665e-01 1.2419533375939689e+00 2.0310474397019013e-02 -1.4967656898351267e+00 2.3522661949500114e+00 3.2403014457409640e-01 
        </Neuron>
      </Layer>
      <Layer Index="1" NNeurons="14">
        <Neuron NSynapses="1">
          -1.0428148247131104e+00 
        </Neuron>
        <Neuron NSynapses="1">
          1.2956631820188707e+00 
        </Neuron>
        <Neuron NSynapses="1">
          -1.8035327229006426e+00 
        </Neuron>
        <Neuron NSynapses="1">
          -1.8993321378579897e+00 
        </Neuron>
        <Neuron NSynapses="1">
          1.2845580061853932e+00 
        </Neuron>
        <Neuron NSynapses="1">
          -1.0540835160137978e+00 
        </Neuron>
        <Neuron NSynapses="1">
          3.6470990090402466e+00 
        </Neuron>
        <Neuron NSynapses="1">
          1.2344558803729495e+00 
        </Neuron>
        <Neuron NSynapses="1">
          1.5971842757108918e+00 
        </Neuron>
        <Neuron NSynapses="1">
          -1.2048256056734079e+00 
        </Neuron>
        <Neuron NSynapses="1">
          2.0875393055819389e+00 
        </Neuron>
        <Neuron NSynapses="1">
          -2.3897516747068788e+00 
        </Neuron>
        <Neuron NSynapses="1">
          3.7672306368104302e+00 
        </Neuron>
        <Neuron NSynapses="1">
          -6.1869370057600692e-01 
        </Neuron>
      </Layer>
      <Layer Index="2" NNeurons="1">
        <Neuron NSynapses="0"/>
      </Layer>
    </Layout>
  </Weights>
</MethodSetup>
